{
  "description": "2-channel CNN weights from converged models",
  "date": "2025-12-03 16:50:59",
  "architecture": {
    "hidden_channels": 2,
    "conv1": "1 -> 2 channels, 3x3 kernel, circular padding",
    "conv2": "2 -> 1 channels, 1x1 kernel",
    "activation": "ReLU after conv1, Sigmoid after conv2"
  },
  "regularization": {
    "none": "No regularization",
    "l1": "L1 on conv1, lambda=0.001",
    "l2": "L2 weight_decay=0.001"
  },
  "models": {
    "none": [
      {
        "conv1": {
          "channel_0": {
            "kernel": [
              [
                -0.937039315700531,
                -0.9370981454849243,
                -0.9370371103286743
              ],
              [
                -0.9370128512382507,
                -0.7862191200256348,
                -0.9370732307434082
              ],
              [
                -0.9367734789848328,
                -0.9369024634361267,
                -0.9369133710861206
              ]
            ],
            "bias": 2.810213565826416
          },
          "channel_1": {
            "kernel": [
              [
                -0.45268118381500244,
                -0.4535786211490631,
                -0.453081339597702
              ],
              [
                -0.4495678246021271,
                0.2117871344089508,
                -0.4480031728744507
              ],
              [
                -0.45108866691589355,
                -0.4494939148426056,
                -0.4462113678455353
              ]
            ],
            "bias": 1.9306613206863403
          }
        },
        "conv2": {
          "channel_0_weight": -3.7537643909454346,
          "channel_1_weight": 2.3084065914154053,
          "bias": -0.8084287643432617
        },
        "metadata": {
          "seed": 5000,
          "convergence_epoch": 24,
          "val_accuracy": 1.0,
          "lambda_l1": 0.0,
          "weight_decay": null
        }
      }
    ],
    "l1": [
      {
        "conv1": {
          "channel_0": {
            "kernel": [
              [
                0.5379045009613037,
                0.5388053059577942,
                0.539048433303833
              ],
              [
                0.5405381321907043,
                -0.3285791277885437,
                0.5375956296920776
              ],
              [
                0.5404155254364014,
                0.5379188060760498,
                0.5400795340538025
              ]
            ],
            "bias": -0.7810028195381165
          },
          "channel_1": {
            "kernel": [
              [
                -0.8436394929885864,
                -0.8436390161514282,
                -0.8438786268234253
              ],
              [
                -0.8436351418495178,
                -0.8418656587600708,
                -0.843757152557373
              ],
              [
                -0.8437519669532776,
                -0.8437506556510925,
                -0.84372478723526
              ]
            ],
            "bias": 2.5308468341827393
          }
        },
        "conv2": {
          "channel_0_weight": -1.871034026145935,
          "channel_1_weight": -3.994983673095703,
          "bias": 1.8602601289749146
        },
        "metadata": {
          "seed": 300,
          "convergence_epoch": 26,
          "val_accuracy": 1.0,
          "lambda_l1": 0.001,
          "weight_decay": null
        }
      },
      {
        "conv1": {
          "channel_0": {
            "kernel": [
              [
                -0.4172661304473877,
                -0.4174749553203583,
                -0.4176497757434845
              ],
              [
                -0.41697701811790466,
                0.21220168471336365,
                -0.41724693775177
              ],
              [
                -0.4172758162021637,
                -0.4172873795032501,
                -0.4180465042591095
              ]
            ],
            "bias": 2.0868709087371826
          },
          "channel_1": {
            "kernel": [
              [
                -0.7365840673446655,
                -0.7365522980690002,
                -0.736475944519043
              ],
              [
                -0.7364605069160461,
                -0.660153329372406,
                -0.7365250587463379
              ],
              [
                -0.7364426851272583,
                -0.7365113496780396,
                -0.7364383935928345
              ]
            ],
            "bias": 2.2093896865844727
          }
        },
        "conv2": {
          "channel_0_weight": 1.9946939945220947,
          "channel_1_weight": -4.058637619018555,
          "bias": -1.312361240386963
        },
        "metadata": {
          "seed": 400,
          "convergence_epoch": 20,
          "val_accuracy": 1.0,
          "lambda_l1": 0.001,
          "weight_decay": null
        }
      },
      {
        "conv1": {
          "channel_0": {
            "kernel": [
              [
                -0.7275907397270203,
                -0.7275791168212891,
                -0.7275938391685486
              ],
              [
                -0.7275769114494324,
                -0.6683924198150635,
                -0.7276199460029602
              ],
              [
                -0.7276291847229004,
                -0.7276637554168701,
                -0.7276129126548767
              ]
            ],
            "bias": 2.183145761489868
          },
          "channel_1": {
            "kernel": [
              [
                -0.2823691964149475,
                -0.28138288855552673,
                -0.28225597739219666
              ],
              [
                -0.2827892005443573,
                0.14947523176670074,
                -0.2822444438934326
              ],
              [
                -0.2821398675441742,
                -0.2826584577560425,
                -0.28174102306365967
              ]
            ],
            "bias": 1.4103388786315918
          }
        },
        "conv2": {
          "channel_0_weight": -3.9244422912597656,
          "channel_1_weight": 2.6874783039093018,
          "bias": -1.167585849761963
        },
        "metadata": {
          "seed": 600,
          "convergence_epoch": 18,
          "val_accuracy": 1.0,
          "lambda_l1": 0.001,
          "weight_decay": null
        }
      },
      {
        "conv1": {
          "channel_0": {
            "kernel": [
              [
                0.5008726716041565,
                0.5032594799995422,
                0.5052582621574402
              ],
              [
                0.5020111203193665,
                -0.4229222536087036,
                0.5013270974159241
              ],
              [
                0.5047149658203125,
                0.5054385662078857,
                0.5028483867645264
              ]
            ],
            "bias": -0.8371535539627075
          },
          "channel_1": {
            "kernel": [
              [
                -0.722695529460907,
                -0.7227796316146851,
                -0.7227511405944824
              ],
              [
                -0.7227863073348999,
                -0.7226722240447998,
                -0.722775936126709
              ],
              [
                -0.7227483987808228,
                -0.7227959632873535,
                -0.7228487730026245
              ]
            ],
            "bias": 2.168424606323242
          }
        },
        "conv2": {
          "channel_0_weight": -1.5615403652191162,
          "channel_1_weight": -3.4826788902282715,
          "bias": 1.1484944820404053
        },
        "metadata": {
          "seed": 700,
          "convergence_epoch": 20,
          "val_accuracy": 1.0,
          "lambda_l1": 0.001,
          "weight_decay": null
        }
      }
    ],
    "l2": [
      {
        "conv1": {
          "channel_0": {
            "kernel": [
              [
                0.6696538329124451,
                0.6707096099853516,
                0.6700479388237
              ],
              [
                0.6688562035560608,
                -0.43422311544418335,
                0.668393075466156
              ],
              [
                0.671827495098114,
                0.669025182723999,
                0.6702094674110413
              ]
            ],
            "bias": -0.9521561861038208
          },
          "channel_1": {
            "kernel": [
              [
                -0.8420027494430542,
                -0.8421363830566406,
                -0.8418435454368591
              ],
              [
                -0.8420389294624329,
                -0.838756263256073,
                -0.842743456363678
              ],
              [
                -0.8420403003692627,
                -0.8422933220863342,
                -0.842373788356781
              ]
            ],
            "bias": 2.5266830921173096
          }
        },
        "conv2": {
          "channel_0_weight": -1.569252848625183,
          "channel_1_weight": -4.209916114807129,
          "bias": 1.9776579141616821
        },
        "metadata": {
          "seed": 6100,
          "convergence_epoch": 29,
          "val_accuracy": 1.0,
          "lambda_l1": null,
          "weight_decay": 0.001
        }
      },
      {
        "conv1": {
          "channel_0": {
            "kernel": [
              [
                -0.4154622554779053,
                -0.41555073857307434,
                -0.41545262932777405
              ],
              [
                -0.4149671792984009,
                0.22918349504470825,
                -0.41468238830566406
              ],
              [
                -0.41566333174705505,
                -0.41518259048461914,
                -0.41562965512275696
              ]
            ],
            "bias": 2.0773494243621826
          },
          "channel_1": {
            "kernel": [
              [
                -0.825092613697052,
                -0.8251807689666748,
                -0.8252165913581848
              ],
              [
                -0.8249781727790833,
                -0.7215043902397156,
                -0.8251864910125732
              ],
              [
                -0.8251726627349854,
                -0.8251468539237976,
                -0.8251643776893616
              ]
            ],
            "bias": 2.47501540184021
          }
        },
        "conv2": {
          "channel_0_weight": 2.064055919647217,
          "channel_1_weight": -3.6283187866210938,
          "bias": -1.3692898750305176
        },
        "metadata": {
          "seed": 6300,
          "convergence_epoch": 19,
          "val_accuracy": 1.0,
          "lambda_l1": null,
          "weight_decay": 0.001
        }
      }
    ]
  }
}